{
    "layers": [
        {
            "W": [
                [
                    -19795,
                    -14373,
                    -19952,
                    4640,
                    2655,
                    27663,
                    -20498,
                    1125,
                    7651,
                    -10118
                ],
                [
                    -8699,
                    3250,
                    -12542,
                    28004,
                    9959,
                    27722,
                    3376,
                    -11837,
                    -24572,
                    -19184
                ],
                [
                    -13993,
                    32767,
                    8969,
                    11855,
                    1715,
                    -23566,
                    21762,
                    19421,
                    22433,
                    11648
                ],
                [
                    -5314,
                    11186,
                    -11959,
                    -3542,
                    -27207,
                    -25821,
                    25303,
                    16529,
                    29229,
                    -20525
                ]
            ],
            "b": [
                0,
                -6043,
                0,
                7864,
                7246,
                16157,
                -7381,
                -9306,
                -8645,
                0
            ],
            "Q": 15
        },
        {
            "W": [
                [
                    7063,
                    1485,
                    6155,
                    1627,
                    -16790,
                    -10793,
                    -15479,
                    -5787,
                    -15510,
                    7666
                ],
                [
                    -13089,
                    -9515,
                    7404,
                    10963,
                    -484,
                    -2801,
                    27071,
                    -15239,
                    -321,
                    -8363
                ],
                [
                    -6608,
                    11179,
                    -7746,
                    -13298,
                    3485,
                    1918,
                    11388,
                    -8925,
                    -4735,
                    4927
                ],
                [
                    -238,
                    -8662,
                    -8102,
                    -5263,
                    4839,
                    -16748,
                    8927,
                    9138,
                    -2206,
                    27355
                ],
                [
                    10415,
                    -15844,
                    -12594,
                    -907,
                    -2645,
                    12060,
                    -16742,
                    1607,
                    -2134,
                    14925
                ],
                [
                    29497,
                    -9404,
                    16067,
                    -12229,
                    -2436,
                    2177,
                    -2774,
                    1981,
                    20464,
                    32767
                ],
                [
                    -1816,
                    3675,
                    10932,
                    -10785,
                    -13626,
                    -16766,
                    10484,
                    -306,
                    -1415,
                    -19715
                ],
                [
                    -10282,
                    3398,
                    15089,
                    -5589,
                    18898,
                    -11967,
                    17821,
                    -12408,
                    -12345,
                    -21476
                ],
                [
                    154,
                    -12257,
                    12779,
                    -15871,
                    21812,
                    228,
                    23260,
                    228,
                    -18271,
                    -28151
                ],
                [
                    12769,
                    -8197,
                    -3118,
                    17216,
                    -11596,
                    -13220,
                    7844,
                    673,
                    13013,
                    17692
                ]
            ],
            "b": [
                4834,
                0,
                -1394,
                0,
                2371,
                0,
                -2693,
                624,
                2184,
                12395
            ],
            "Q": 15
        },
        {
            "W": [
                [
                    19664,
                    9150,
                    -23742
                ],
                [
                    17410,
                    5808,
                    9579
                ],
                [
                    -5316,
                    -6239,
                    -921
                ],
                [
                    -11091,
                    -17293,
                    -12750
                ],
                [
                    -18056,
                    12197,
                    8456
                ],
                [
                    -3604,
                    12754,
                    -11371
                ],
                [
                    -25862,
                    10387,
                    32488
                ],
                [
                    15457,
                    6670,
                    -594
                ],
                [
                    17926,
                    -14600,
                    3124
                ],
                [
                    30210,
                    24997,
                    -32768
                ]
            ],
            "b": [
                171,
                3732,
                -3904
            ],
            "Q": 15
        }
    ]
}